digraph Tree {
node [shape=box, style="filled, rounded", color="black", fontname="helvetica"] ;
edge [fontname="helvetica"] ;
0 [label="InsessionView <= 0.01\ngini = 0.5\nsamples = 408498\nvalue = [322939.44, 320677.82]", fillcolor="#fffefe"] ;
1 [label="timeOfDay <= 0.08\ngini = 0.08\nsamples = 19430\nvalue = [11735.63, 274383.67]", fillcolor="#41a1e6"] ;
0 -> 1 [labeldistance=2.5, labelangle=45, headlabel="True"] ;
2 [label="weekday <= 0.58\ngini = 0.1\nsamples = 2384\nvalue = [1524.69, 26546.3]", fillcolor="#44a3e6"] ;
1 -> 2 ;
3 [label="interactionTime <= 0.0\ngini = 0.06\nsamples = 868\nvalue = [470.03, 15719.15]", fillcolor="#3fa0e6"] ;
2 -> 3 ;
4 [label="NumOfEventsInJourney <= 0.05\ngini = 0.06\nsamples = 839\nvalue = [463.44, 14676.0]", fillcolor="#3fa0e6"] ;
3 -> 4 ;
5 [label="gini = 0.06\nsamples = 835\nvalue = [459.89, 14676.0]", fillcolor="#3fa0e6"] ;
4 -> 5 ;
6 [label="gini = 0.0\nsamples = 4\nvalue = [3.55, 0.0]", fillcolor="#e58139"] ;
4 -> 6 ;
7 [label="NumOfEventsInJourney <= 0.14\ngini = 0.01\nsamples = 29\nvalue = [6.59, 1043.15]", fillcolor="#3a9ee5"] ;
3 -> 7 ;
8 [label="gini = 0.02\nsamples = 28\nvalue = [6.59, 863.29]", fillcolor="#3b9ee5"] ;
7 -> 8 ;
9 [label="gini = 0.0\nsamples = 1\nvalue = [0.0, 179.85]", fillcolor="#399de5"] ;
7 -> 9 ;
10 [label="maxPrice <= 0.0\ngini = 0.16\nsamples = 1516\nvalue = [1054.66, 10827.15]", fillcolor="#4ca7e8"] ;
2 -> 10 ;
11 [label="gini = 0.0\nsamples = 21\nvalue = [13.69, 0.0]", fillcolor="#e58139"] ;
10 -> 11 ;
12 [label="weekday <= 0.75\ngini = 0.16\nsamples = 1495\nvalue = [1040.97, 10827.15]", fillcolor="#4ca6e7"] ;
10 -> 12 ;
13 [label="gini = 0.23\nsamples = 666\nvalue = [486.26, 3237.35]", fillcolor="#57ace9"] ;
12 -> 13 ;
14 [label="gini = 0.13\nsamples = 829\nvalue = [554.71, 7589.79]", fillcolor="#47a4e7"] ;
12 -> 14 ;
15 [label="timeOfDay <= 0.75\ngini = 0.08\nsamples = 17046\nvalue = [10210.93, 247837.38]", fillcolor="#41a1e6"] ;
1 -> 15 ;
16 [label="interactionTime <= 0.0\ngini = 0.07\nsamples = 14223\nvalue = [8421.56, 214708.46]", fillcolor="#41a1e6"] ;
15 -> 16 ;
17 [label="maxPrice <= 0.0\ngini = 0.07\nsamples = 13860\nvalue = [8268.43, 204852.52]", fillcolor="#41a1e6"] ;
16 -> 17 ;
18 [label="gini = 0.0\nsamples = 24\nvalue = [20.28, 0.0]", fillcolor="#e58139"] ;
17 -> 18 ;
19 [label="gini = 0.07\nsamples = 13836\nvalue = [8248.15, 204852.52]", fillcolor="#41a1e6"] ;
17 -> 19 ;
20 [label="maxPrice <= 0.01\ngini = 0.03\nsamples = 363\nvalue = [153.13, 9855.94]", fillcolor="#3c9fe5"] ;
16 -> 20 ;
21 [label="gini = 0.1\nsamples = 24\nvalue = [13.69, 251.79]", fillcolor="#44a2e6"] ;
20 -> 21 ;
22 [label="gini = 0.03\nsamples = 339\nvalue = [139.44, 9604.15]", fillcolor="#3c9ee5"] ;
20 -> 22 ;
23 [label="maxPrice <= 0.0\ngini = 0.1\nsamples = 2823\nvalue = [1789.37, 33128.91]", fillcolor="#44a2e6"] ;
15 -> 23 ;
24 [label="gini = 0.0\nsamples = 7\nvalue = [5.58, 0.0]", fillcolor="#e58139"] ;
23 -> 24 ;
25 [label="maxPrice <= 0.15\ngini = 0.1\nsamples = 2816\nvalue = [1783.8, 33128.91]", fillcolor="#44a2e6"] ;
23 -> 25 ;
26 [label="gini = 0.09\nsamples = 2071\nvalue = [1294.49, 25970.77]", fillcolor="#43a2e6"] ;
25 -> 26 ;
27 [label="gini = 0.12\nsamples = 745\nvalue = [489.3, 7158.15]", fillcolor="#47a4e7"] ;
25 -> 27 ;
28 [label="NumView <= 0.06\ngini = 0.23\nsamples = 389068\nvalue = [311203.81, 46294.15]", fillcolor="#e99456"] ;
0 -> 28 [labeldistance=2.5, labelangle=-45, headlabel="False"] ;
29 [label="weekday <= 0.92\ngini = 0.12\nsamples = 1643\nvalue = [1075.96, 15827.06]", fillcolor="#46a4e7"] ;
28 -> 29 ;
30 [label="InsessionView <= 0.02\ngini = 0.15\nsamples = 1214\nvalue = [819.39, 9568.18]", fillcolor="#4aa5e7"] ;
29 -> 30 ;
31 [label="weekday <= 0.42\ngini = 0.13\nsamples = 1033\nvalue = [684.51, 8848.77]", fillcolor="#48a5e7"] ;
30 -> 31 ;
32 [label="gini = 0.08\nsamples = 273\nvalue = [160.23, 3776.91]", fillcolor="#41a1e6"] ;
31 -> 32 ;
33 [label="gini = 0.17\nsamples = 760\nvalue = [524.29, 5071.85]", fillcolor="#4da7e8"] ;
31 -> 33 ;
34 [label="weekday <= 0.42\ngini = 0.27\nsamples = 181\nvalue = [134.87, 719.41]", fillcolor="#5eafea"] ;
30 -> 34 ;
35 [label="gini = 0.11\nsamples = 32\nvalue = [20.28, 323.74]", fillcolor="#45a3e7"] ;
34 -> 35 ;
36 [label="gini = 0.35\nsamples = 149\nvalue = [114.59, 395.68]", fillcolor="#72b9ed"] ;
34 -> 36 ;
37 [label="interactionTime <= 0.01\ngini = 0.08\nsamples = 429\nvalue = [256.57, 6258.88]", fillcolor="#41a1e6"] ;
29 -> 37 ;
38 [label="interactionTime <= 0.0\ngini = 0.07\nsamples = 426\nvalue = [253.52, 6258.88]", fillcolor="#41a1e6"] ;
37 -> 38 ;
39 [label="gini = 0.08\nsamples = 421\nvalue = [253.52, 6007.09]", fillcolor="#41a1e6"] ;
38 -> 39 ;
40 [label="gini = 0.0\nsamples = 5\nvalue = [0.0, 251.79]", fillcolor="#399de5"] ;
38 -> 40 ;
41 [label="timeOfDay <= 0.5\ngini = 0.0\nsamples = 3\nvalue = [3.04, 0.0]", fillcolor="#e58139"] ;
37 -> 41 ;
42 [label="gini = 0.0\nsamples = 2\nvalue = [2.03, 0.0]", fillcolor="#e58139"] ;
41 -> 42 ;
43 [label="gini = 0.0\nsamples = 1\nvalue = [1.01, 0.0]", fillcolor="#e58139"] ;
41 -> 43 ;
44 [label="NumOfEventsInJourney <= 0.05\ngini = 0.16\nsamples = 387425\nvalue = [310127.85, 30467.09]", fillcolor="#e88d4c"] ;
28 -> 44 ;
45 [label="gini = -0.0\nsamples = 375707\nvalue = [301147.52, 0.0]", fillcolor="#e58139"] ;
44 -> 45 ;
46 [label="NumView <= 0.17\ngini = 0.35\nsamples = 11718\nvalue = [8980.33, 30467.09]", fillcolor="#73baed"] ;
44 -> 46 ;
47 [label="NumCart <= 0.06\ngini = 0.1\nsamples = 2405\nvalue = [1535.34, 27085.86]", fillcolor="#44a3e6"] ;
46 -> 47 ;
48 [label="gini = 0.0\nsamples = 453\nvalue = [0.0, 24855.68]", fillcolor="#399de5"] ;
47 -> 48 ;
49 [label="gini = 0.48\nsamples = 1952\nvalue = [1535.34, 2230.18]", fillcolor="#c1e0f7"] ;
47 -> 49 ;
50 [label="interactionTime <= 0.06\ngini = 0.43\nsamples = 9313\nvalue = [7444.99, 3381.24]", fillcolor="#f1ba93"] ;
46 -> 50 ;
51 [label="gini = 0.25\nsamples = 6417\nvalue = [5167.83, 863.29]", fillcolor="#e9965a"] ;
50 -> 51 ;
52 [label="gini = 0.5\nsamples = 2896\nvalue = [2277.15, 2517.94]", fillcolor="#ecf6fd"] ;
50 -> 52 ;
}