digraph Tree {
node [shape=box, style="filled, rounded", color="black", fontname="helvetica"] ;
edge [fontname="helvetica"] ;
0 [label="NumOfEventsInJourney <= 0.05\ngini = 0.5\nsamples = 408345\nvalue = [322938.42, 320749.76]", fillcolor="#fffefe"] ;
1 [label="NumView <= 0.06\ngini = 0.5\nsamples = 396035\nvalue = [313735.5, 272729.02]", fillcolor="#fcefe5"] ;
0 -> 1 [labeldistance=2.5, labelangle=45, headlabel="True"] ;
2 [label="maxPrice <= 0.0\ngini = 0.08\nsamples = 20435\nvalue = [12577.33, 272729.02]", fillcolor="#42a2e6"] ;
1 -> 2 ;
3 [label="gini = 0.0\nsamples = 40\nvalue = [31.44, 0.0]", fillcolor="#e58139"] ;
2 -> 3 ;
4 [label="NumCart <= 0.06\ngini = 0.08\nsamples = 20395\nvalue = [12545.89, 272729.02]", fillcolor="#42a2e6"] ;
2 -> 4 ;
5 [label="gini = 0.0\nsamples = 4783\nvalue = [0.0, 272729.02]", fillcolor="#399de5"] ;
4 -> 5 ;
6 [label="timeOfDay <= 0.08\ngini = 0.0\nsamples = 15612\nvalue = [12545.89, 0.0]", fillcolor="#e58139"] ;
4 -> 6 ;
7 [label="gini = 0.0\nsamples = 2005\nvalue = [1600.75, 0.0]", fillcolor="#e58139"] ;
6 -> 7 ;
8 [label="gini = 0.0\nsamples = 13607\nvalue = [10945.14, 0.0]", fillcolor="#e58139"] ;
6 -> 8 ;
9 [label="gini = -0.0\nsamples = 375600\nvalue = [301158.17, 0.0]", fillcolor="#e58139"] ;
1 -> 9 ;
10 [label="interactionTime <= 0.0\ngini = 0.27\nsamples = 12310\nvalue = [9202.92, 48020.74]", fillcolor="#5fb0ea"] ;
0 -> 10 [labeldistance=2.5, labelangle=-45, headlabel="False"] ;
11 [label="gini = 0.0\nsamples = 435\nvalue = [352.4, 0.0]", fillcolor="#e58139"] ;
10 -> 11 ;
12 [label="NumView <= 0.17\ngini = 0.26\nsamples = 11875\nvalue = [8850.52, 48020.74]", fillcolor="#5dafea"] ;
10 -> 12 ;
13 [label="NumCart <= 0.06\ngini = 0.07\nsamples = 2850\nvalue = [1692.53, 44495.62]", fillcolor="#41a1e6"] ;
12 -> 13 ;
14 [label="gini = 0.0\nsamples = 526\nvalue = [0.0, 29855.59]", fillcolor="#399de5"] ;
13 -> 14 ;
15 [label="maxPrice <= 0.01\ngini = 0.19\nsamples = 2324\nvalue = [1692.53, 14640.03]", fillcolor="#50a8e8"] ;
13 -> 15 ;
16 [label="gini = 0.48\nsamples = 91\nvalue = [74.03, 107.91]", fillcolor="#c1e0f7"] ;
15 -> 16 ;
17 [label="gini = 0.18\nsamples = 2233\nvalue = [1618.5, 14532.12]", fillcolor="#4fa8e8"] ;
15 -> 17 ;
18 [label="NumCart <= 0.06\ngini = 0.44\nsamples = 9025\nvalue = [7158.0, 3525.12]", fillcolor="#f2bf9b"] ;
12 -> 18 ;
19 [label="InsessionView <= 0.02\ngini = 0.39\nsamples = 8776\nvalue = [6981.55, 2517.94]", fillcolor="#eeae80"] ;
18 -> 19 ;
20 [label="gini = 0.45\nsamples = 3996\nvalue = [3175.14, 1654.65]", fillcolor="#f3c3a0"] ;
19 -> 20 ;
21 [label="gini = 0.3\nsamples = 4780\nvalue = [3806.41, 863.29]", fillcolor="#eb9e66"] ;
19 -> 21 ;
22 [label="NumOfEventsInJourney <= 0.23\ngini = 0.25\nsamples = 249\nvalue = [176.45, 1007.18]", fillcolor="#5caeea"] ;
18 -> 22 ;
23 [label="gini = -0.0\nsamples = 188\nvalue = [140.96, 0.0]", fillcolor="#e58139"] ;
22 -> 23 ;
24 [label="gini = 0.07\nsamples = 61\nvalue = [35.49, 1007.18]", fillcolor="#40a0e6"] ;
22 -> 24 ;
}